digraph Tree {
node [shape=box, style="filled, rounded", color="black", fontname="helvetica"] ;
edge [fontname="helvetica"] ;
0 [label=<dl.latency.value &le; 5.8825<br/>gini = 0.091633<br/>samples = 4446<br/>value = [4232.0, 214.0]<br/>class = Compliant>, fillcolor="#e68743"] ;
1 [label=<gini = 0.0<br/>samples = 4232<br/>value = [4232, 0]<br/>class = Compliant>, fillcolor="#e58139"] ;
0 -> 1 [labeldistance=2.5, labelangle=45, headlabel="True"] ;
2 [label=<gini = 0.0<br/>samples = 214<br/>value = [0, 214]<br/>class = T1P;T2P;T3P;T4P>, fillcolor="#399de5"] ;
0 -> 2 [labeldistance=2.5, labelangle=-45, headlabel="False"] ;
}
