digraph Tree {
node [shape=box, style="filled, rounded", color="black", fontname="helvetica"] ;
edge [fontname="helvetica"] ;
0 [label=<satimage_17 &le; 41.0<br/>gini = 0.021861<br/>samples = 5803<br/>value = [5739.0, 2.0, 3.0, 1.0, 2.0, 2.0, 1.0, 3.0, 50.0]<br/>class = Compliant>, fillcolor="#e5823b"] ;
1 [label=<satimage_23 &le; 106.0<br/>gini = 0.251486<br/>samples = 58<br/>value = [0, 0, 0, 0, 2, 2, 1, 3, 50]<br/>class = T1P;T2P;T3P;T4P>, fillcolor="#e9567b"] ;
0 -> 1 [labeldistance=2.5, labelangle=45, headlabel="True"] ;
2 [label=<satimage_16 &le; 47.5<br/>gini = 0.653061<br/>samples = 7<br/>value = [0, 0, 0, 0, 2, 2, 0, 3, 0]<br/>class = T1P;T2P;T3P;T4N>, fillcolor="#fad7f7"] ;
1 -> 2 ;
3 [label=<gini = 0.0<br/>samples = 3<br/>value = [0, 0, 0, 0, 0, 0, 0, 3, 0]<br/>class = T1P;T2P;T3P;T4N>, fillcolor="#e539d7"] ;
2 -> 3 ;
4 [label=<satimage_8 &le; 58.5<br/>gini = 0.5<br/>samples = 4<br/>value = [0, 0, 0, 0, 2, 2, 0, 0, 0]<br/>class = T1P;T2N;T3P;T4N>, fillcolor="#ffffff"] ;
2 -> 4 ;
5 [label=<gini = 0.0<br/>samples = 2<br/>value = [0, 0, 0, 0, 2, 0, 0, 0, 0]<br/>class = T1P;T2N;T3P;T4N>, fillcolor="#39d7e5"] ;
4 -> 5 ;
6 [label=<gini = 0.0<br/>samples = 2<br/>value = [0, 0, 0, 0, 0, 2, 0, 0, 0]<br/>class = T1P;T2P;T3N;T4N>, fillcolor="#3964e5"] ;
4 -> 6 ;
7 [label=<satimage_28 &le; 59.5<br/>gini = 0.038447<br/>samples = 51<br/>value = [0, 0, 0, 0, 0, 0, 1, 0, 50]<br/>class = T1P;T2P;T3P;T4P>, fillcolor="#e63d67"] ;
1 -> 7 ;
8 [label=<gini = 0.0<br/>samples = 50<br/>value = [0, 0, 0, 0, 0, 0, 0, 0, 50]<br/>class = T1P;T2P;T3P;T4P>, fillcolor="#e53964"] ;
7 -> 8 ;
9 [label=<gini = 0.0<br/>samples = 1<br/>value = [0, 0, 0, 0, 0, 0, 1, 0, 0]<br/>class = T1P;T2P;T3N;T4P>, fillcolor="#8139e5"] ;
7 -> 9 ;
10 [label=<satimage_35 &le; 128.5<br/>gini = 0.002087<br/>samples = 5745<br/>value = [5739, 2, 3, 1, 0, 0, 0, 0, 0]<br/>class = Compliant>, fillcolor="#e58139"] ;
0 -> 10 [labeldistance=2.5, labelangle=-45, headlabel="False"] ;
11 [label=<satimage_9 &le; 28.0<br/>gini = 0.000348<br/>samples = 5740<br/>value = [5739, 0, 1, 0, 0, 0, 0, 0, 0]<br/>class = Compliant>, fillcolor="#e58139"] ;
10 -> 11 ;
12 [label=<gini = 0.0<br/>samples = 1<br/>value = [0, 0, 1, 0, 0, 0, 0, 0, 0]<br/>class = T1N;T2N;T3P;T4P>, fillcolor="#64e539"] ;
11 -> 12 ;
13 [label=<gini = 0.0<br/>samples = 5739<br/>value = [5739, 0, 0, 0, 0, 0, 0, 0, 0]<br/>class = Compliant>, fillcolor="#e58139"] ;
11 -> 13 ;
14 [label=<satimage_30 &le; 122.0<br/>gini = 0.64<br/>samples = 5<br/>value = [0, 2, 2, 1, 0, 0, 0, 0, 0]<br/>class = T1N;T2N;T3N;T4P>, fillcolor="#ffffff"] ;
10 -> 14 ;
15 [label=<gini = 0.0<br/>samples = 2<br/>value = [0, 0, 2, 0, 0, 0, 0, 0, 0]<br/>class = T1N;T2N;T3P;T4P>, fillcolor="#64e539"] ;
14 -> 15 ;
16 [label=<gini = 0.444444<br/>samples = 3<br/>value = [0, 2, 0, 1, 0, 0, 0, 0, 0]<br/>class = T1N;T2N;T3N;T4P>, fillcolor="#ebf29c"] ;
14 -> 16 ;
}
